34 128
34 0.04004877 0.07202781 -0.04760351 0.105142385 -0.007089609 0.035504255 -0.029023513 0.013554795 -0.15434648 0.09848703 -0.11170315 0.089059405 0.07527407 -0.05191775 0.023926133 0.0040544686 0.09313076 -0.06632457 0.074051455 -0.08509296 0.11813844 -0.1467117 0.05089136 0.05292974 -0.23772968 -0.1215214 0.08436594 0.13051136 0.1700513 0.062431376 -0.012129244 0.101386726 0.111940645 -0.16442539 -0.079677895 -0.054396737 0.12583527 -0.10140056 0.012797131 -0.18062675 -0.20190784 -0.042072903 0.0143500045 0.13864352 -0.13151446 -0.11137347 -0.12841876 -0.0334258 -0.043928728 -0.1417128 -0.15990622 -0.15669398 -0.1277533 0.050255764 -0.15002136 0.10996656 -0.15659836 0.31078357 0.13644634 -0.010450772 0.079557404 -0.06628381 -0.0035665336 0.13989273 0.09393094 0.12959525 0.013921191 0.13808666 -0.053645387 -0.05549349 0.07950762 -0.011309965 -0.16843233 0.00502922 0.1868629 -0.015504606 -0.067358024 -0.12898345 -0.071240135 -0.0066373493 0.09868479 0.06325381 -0.02109407 0.058899842 -0.009663013 0.048171386 0.14411627 -0.17761753 0.11475246 -0.12546603 0.007849078 -0.1395852 -0.10063602 0.10272695 0.09783955 -0.23605537 0.15718195 0.21353434 -0.059506353 0.06773166 -0.17229529 -0.0012367088 0.17491195 -0.12140752 -0.0031004322 0.021202808 -0.09151137 0.12353507 0.2310524 0.105655625 -0.102550775 -0.021801574 -0.027990904 0.07042643 -0.07157122 0.007854458 0.00055790925 0.13266446 0.027499165 -0.0256674 -0.02524484 -0.01906738 -0.109177686 0.05847705 -0.014005603 0.027151857 -0.06865473 -0.029137066
1 0.048603825 -0.068732396 -0.011316701 0.14849539 0.010252523 0.0463999 -0.06207562 -0.0033766665 -0.13006827 0.040285766 -0.1105803 -0.0057964744 0.017976312 -0.13704777 -0.10249371 -0.2068028 0.06760821 0.09764871 0.14570853 0.0077788923 0.09772025 -0.13251483 -0.030789446 0.037007414 -0.26409546 -0.16309094 0.1775347 0.008544463 0.035558615 0.14206731 0.0479737 0.109544 0.12590146 -0.07577797 -0.14444727 -0.19436489 0.12497771 0.10475284 0.07852871 -0.15663163 -0.12675174 -0.030783035 0.10716616 -0.04231063 -0.13310057 0.052466743 -0.004621476 0.02289155 0.037974805 -0.12538527 -0.14646561 -0.19559522 -0.24792811 -0.0034358434 -0.1247967 0.18439816 0.04358986 0.21333626 0.00042796647 -0.032710217 0.03221969 0.122839876 0.021333342 0.10708182 -0.09128303 0.19841927 -0.0891555 0.27019325 -0.0810354 -0.031804442 0.19332913 0.08639388 -0.12479386 0.030836219 0.19323215 -0.049937952 -0.1265544 -0.045623023 0.0066943206 -0.07682838 0.029112302 0.0072805425 -0.15977538 0.03903041 -0.07815802 0.107444 0.0044665197 -0.11118305 0.1412212 -0.13636671 0.07820973 -0.06620741 -0.14496855 0.027437046 0.077969246 -0.17971802 0.1890503 0.19324273 0.12460048 0.029992457 -0.19374056 -0.06402661 0.20036635 -0.21805386 0.06509518 -0.03585633 -0.062244795 0.09505612 0.25320524 0.20658194 -0.18171182 -0.07074485 -0.054751422 0.05624268 0.01321896 -0.14838135 -0.031872824 0.13692017 0.12737069 -0.09861857 0.1086589 -0.013795861 -0.058043886 -0.026474942 0.067396 0.16961382 -0.115195036 0.106815726
33 0.038485214 0.08208845 -0.05341226 0.10845896 -0.005774672 0.034600195 -0.023530351 0.007466183 -0.16517979 0.10253729 -0.11269495 0.096078336 0.08243732 -0.043326627 0.030527493 0.02252609 0.10120719 -0.08089219 0.07175389 -0.098621815 0.11685208 -0.15268335 0.057139132 0.0535086 -0.24206609 -0.12328967 0.071523614 0.1424535 0.17736211 0.054787308 -0.014614988 0.100673616 0.11673722 -0.17263891 -0.07568558 -0.048284523 0.12376901 -0.11516174 0.010116095 -0.18254651 -0.20784023 -0.044877406 0.010895205 0.1581812 -0.13077833 -0.1275168 -0.14121914 -0.043706626 -0.046587422 -0.1429262 -0.16368286 -0.15308395 -0.12348618 0.059237402 -0.15333913 0.110901244 -0.17226572 0.32009104 0.14633009 -0.0033153337 0.083062164 -0.08883098 0.0010417497 0.1363741 0.10522674 0.12088772 0.026706416 0.13342264 -0.04835048 -0.06285401 0.075898916 -0.015804403 -0.1713978 -0.0011999431 0.18905452 -0.016796365 -0.061073612 -0.13560618 -0.07527231 -0.0021095835 0.102717414 0.064195074 -0.011606189 0.06590492 -0.003973075 0.038670946 0.15381582 -0.18792154 0.11036898 -0.12014777 0.0044554397 -0.14321244 -0.09996999 0.110578194 0.0940613 -0.24062097 0.15499535 0.21299087 -0.07327953 0.07423135 -0.17193016 -0.0010381789 0.1698198 -0.11387952 -0.013482218 0.029396549 -0.09478563 0.1211557 0.23430784 0.10292165 -0.09833919 -0.014277151 -0.024745243 0.071292214 -0.07910309 0.027931815 0.0026739847 0.12739547 0.01724124 -0.022636924 -0.029519599 -0.018431878 -0.11568248 0.068309896 -0.01997491 0.017079335 -0.06634354 -0.041358337
3 0.04750766 0.020620257 -0.035882134 0.12684064 0.0053197267 0.032939263 -0.04395664 0.00075708143 -0.14943014 0.075946435 -0.114464305 0.046934597 0.054246545 -0.083824925 -0.031034254 -0.088910095 0.080659464 0.004529914 0.10403814 -0.04222034 0.10786912 -0.14153591 0.012314911 0.04851205 -0.2508397 -0.14560746 0.11851291 0.083424546 0.11720712 0.09237748 0.012685357 0.10858663 0.1212277 -0.12278959 -0.10345986 -0.117957875 0.123457365 -0.009857858 0.048700728 -0.1667917 -0.16576867 -0.036825504 0.05026142 0.06269281 -0.12895936 -0.04611237 -0.07863282 -0.011875457 -0.011960402 -0.13312463 -0.15288493 -0.16350505 -0.18227686 0.031215677 -0.14091781 0.14466761 -0.07171259 0.27159974 0.07708107 -0.018224647 0.059179127 0.013867077 0.011365945 0.11956568 0.016840871 0.15611663 -0.029241031 0.18929593 -0.063881084 -0.05098685 0.13024223 0.031995114 -0.15265147 0.019354459 0.18728213 -0.026747642 -0.09327678 -0.09231808 -0.03605086 -0.04253753 0.07108904 0.03902762 -0.07870848 0.05647899 -0.04381758 0.071535915 0.08280271 -0.15047082 0.12295777 -0.1333785 0.040451754 -0.111313574 -0.123257354 0.0760604 0.08662516 -0.21355216 0.17109591 0.20594922 0.020994686 0.055945296 -0.18754725 -0.03047473 0.18483907 -0.16358845 0.027495962 0.0013347641 -0.08037056 0.11121985 0.24502984 0.15198882 -0.13172166 -0.04559521 -0.04433451 0.06951623 -0.034396157 -0.05612993 -0.01358465 0.13634418 0.07166679 -0.053148694 0.0324363 -0.020881059 -0.09087566 0.019896064 0.023605835 0.08449965 -0.088812135 0.02572835
2 0.044334482 -0.008063159 -0.02905 0.13332938 0.007853947 0.03984165 -0.05225475 -0.0044264873 -0.14486691 0.057841353 -0.11744483 0.028221203 0.039802 -0.10297773 -0.05039757 -0.12618573 0.07920675 0.029387195 0.12305792 -0.0221204 0.09982926 -0.14261404 0.0037827613 0.046807118 -0.25293198 -0.15575138 0.13968965 0.061811294 0.092609346 0.108411945 0.026315928 0.115454726 0.120929115 -0.11260986 -0.12061246 -0.14668065 0.12981494 0.02754911 0.06501751 -0.16259043 -0.14997037 -0.033799663 0.06754236 0.028378852 -0.13261625 -0.011528721 -0.058162205 -0.0015842703 0.0065355147 -0.13135459 -0.14454983 -0.1748205 -0.20733134 0.018025475 -0.14377743 0.15990956 -0.040597886 0.25073665 0.053116336 -0.02114972 0.054720107 0.04775742 0.012187821 0.12175668 -0.015006065 0.17437908 -0.046601616 0.21295635 -0.06445148 -0.045115177 0.15533239 0.04841494 -0.14142376 0.027431348 0.19565123 -0.039711766 -0.10749928 -0.08451724 -0.020830832 -0.056236494 0.06208281 0.027186535 -0.10027154 0.054471195 -0.05905458 0.08869203 0.06435662 -0.13953717 0.12964098 -0.13556722 0.043312352 -0.09179752 -0.13100256 0.05969062 0.09012938 -0.21001449 0.17453483 0.20277059 0.05700209 0.053412862 -0.18553868 -0.04041493 0.1900477 -0.1830374 0.0383871 -0.01602705 -0.07891605 0.100121014 0.24504724 0.16775104 -0.15278809 -0.057382483 -0.04012965 0.070059195 -0.016858317 -0.08047349 -0.022796588 0.13151006 0.08857587 -0.059044674 0.052138943 -0.01426752 -0.077765524 0.0052296086 0.034366917 0.11509377 -0.10128319 0.05131163
32 0.04181982 0.0763216 -0.05167079 0.11354257 -0.0053714165 0.02508962 -0.022600241 0.012377584 -0.16599345 0.09941532 -0.11098147 0.09042662 0.081956424 -0.053995486 0.01249893 -0.0034550687 0.0943691 -0.061784822 0.077693805 -0.086689696 0.11236333 -0.15199716 0.048940722 0.05126576 -0.24416088 -0.1342174 0.07694903 0.14277525 0.16818194 0.06474821 -0.013187431 0.10534605 0.11826883 -0.1634339 -0.07931524 -0.06992461 0.121220686 -0.09706126 0.022658499 -0.18417513 -0.19992581 -0.040372714 0.016896486 0.13950989 -0.12879953 -0.1101407 -0.12980226 -0.03873734 -0.040992886 -0.14168811 -0.16299699 -0.14997426 -0.13450381 0.05698746 -0.14758243 0.11873371 -0.15591577 0.308642 0.13424201 -0.008476667 0.07175581 -0.073487364 -0.0012250908 0.13662353 0.097567365 0.13155602 0.01469103 0.14475706 -0.060229555 -0.06550166 0.08591944 -0.0069153477 -0.17061779 0.000918671 0.19464865 -0.018289365 -0.07133417 -0.1358121 -0.05981713 -0.014081865 0.09724086 0.061328705 -0.026363645 0.06561964 -0.01688528 0.04557788 0.13868053 -0.19017625 0.10833384 -0.13196066 0.019306371 -0.14022169 -0.10863115 0.10397833 0.097874306 -0.23401217 0.15827388 0.2044824 -0.05321396 0.07536448 -0.1769617 -0.01050056 0.17705114 -0.1215311 0.001562187 0.029001767 -0.085212156 0.12156203 0.2399391 0.11080207 -0.10557847 -0.022666484 -0.035839856 0.07597314 -0.06824269 0.014174915 -0.0056979842 0.1278408 0.029980991 -0.026376268 -0.02002554 -0.018069215 -0.11363139 0.0609534 -0.012549262 0.032177504 -0.07150021 -0.035058714
4 0.045803472 -0.011445166 -0.026931452 0.1278088 0.013317523 0.031030716 -0.048546344 -0.0049192654 -0.14436117 0.060808886 -0.11766194 0.027199518 0.04295233 -0.10334781 -0.05872266 -0.13633123 0.07416766 0.038283594 0.12689145 -0.017806012 0.101513594 -0.13611704 -0.0023590266 0.046516202 -0.2527088 -0.15651926 0.14298852 0.06263542 0.08451919 0.11220274 0.031247284 0.11505757 0.1205771 -0.10339274 -0.12280376 -0.15978335 0.121766366 0.040344756 0.06982977 -0.1637715 -0.14309277 -0.029957604 0.071831405 0.013437075 -0.1298469 -0.0050446345 -0.051287662 -0.0035599647 0.006817894 -0.12581843 -0.14254774 -0.17153223 -0.2103403 0.013739803 -0.13860838 0.15993333 -0.024265844 0.2463438 0.04040951 -0.018541645 0.048083544 0.05657488 0.017542437 0.11342557 -0.020272024 0.18123679 -0.04838146 0.2259902 -0.0716209 -0.043102503 0.16006753 0.058353852 -0.14313403 0.021143818 0.19646142 -0.039211776 -0.10693032 -0.08456318 -0.017684344 -0.059776165 0.056317165 0.022226058 -0.111562006 0.051916443 -0.065588474 0.087780215 0.054441035 -0.1392445 0.13073887 -0.14059395 0.049150884 -0.08936899 -0.12487541 0.054513317 0.09073142 -0.20111494 0.17615348 0.18989599 0.06501076 0.047626074 -0.18420555 -0.043014295 0.1931986 -0.18073678 0.043282397 -0.01695664 -0.07319516 0.10108351 0.23642273 0.17414036 -0.15049385 -0.058267917 -0.045295298 0.071442425 -0.013005642 -0.09147147 -0.02209554 0.12722318 0.09306519 -0.061551 0.06324838 -0.0139837405 -0.07618034 -1.7724466e-05 0.04670048 0.11454989 -0.101963274 0.058605004
14 0.046289716 0.007915699 -0.031734828 0.11965976 0.0058473363 0.034939416 -0.039139654 0.0005854915 -0.13787754 0.06263354 -0.10974816 0.040395163 0.045709454 -0.08373306 -0.037433524 -0.10235966 0.080822356 0.010055226 0.11023866 -0.038796972 0.102917396 -0.13443394 0.0079293335 0.04423001 -0.23861901 -0.13974355 0.12656443 0.07629602 0.10508424 0.09868721 0.013115233 0.1086264 0.118156075 -0.12031096 -0.10671926 -0.12615193 0.122198254 0.007126423 0.054861806 -0.16445214 -0.1595389 -0.036051717 0.05700414 0.045523833 -0.1274648 -0.0361404 -0.063456215 -0.012228242 -0.008511844 -0.13246427 -0.14493753 -0.16787463 -0.18326129 0.028027922 -0.13412948 0.14307489 -0.056909893 0.25712126 0.066634394 -0.02082084 0.056062225 0.021746753 0.0068588136 0.11993726 0.009501778 0.16204731 -0.033711165 0.19331169 -0.06994702 -0.04944453 0.13368538 0.03999395 -0.14172527 0.018298903 0.18937007 -0.030816033 -0.09768778 -0.08706377 -0.033968862 -0.042769108 0.06542002 0.03150405 -0.08772876 0.055732865 -0.05114669 0.073335595 0.075210966 -0.14676447 0.12348224 -0.13020155 0.041749977 -0.10272216 -0.116478905 0.06617878 0.08812273 -0.20854646 0.16973346 0.19640368 0.03383922 0.05567946 -0.18119869 -0.031268142 0.18450567 -0.16530243 0.032889325 0.00051884784 -0.07171912 0.10172598 0.23921178 0.15683235 -0.13843206 -0.04885279 -0.042506628 0.064209595 -0.02930305 -0.06624855 -0.019109128 0.12612483 0.07322031 -0.055547643 0.034790453 -0.017172094 -0.083440945 0.018608158 0.03216406 0.09366027 -0.08740515 0.03213533
24 0.04236966 0.0949685 -0.057064056 0.11429987 -0.0077203647 0.030103553 -0.022980029 0.009011325 -0.17123736 0.11577166 -0.11186513 0.10491958 0.08783876 -0.042784475 0.035085738 0.02335565 0.10370126 -0.08626661 0.07560273 -0.10261169 0.116433576 -0.15884508 0.06486577 0.05664789 -0.25032863 -0.12492701 0.07148788 0.1545241 0.18967621 0.051855832 -0.013561615 0.10665822 0.11752316 -0.17927526 -0.07539754 -0.04491281 0.12416365 -0.12058283 0.01639594 -0.18411592 -0.21505253 -0.04729606 0.003109788 0.16104266 -0.13100074 -0.13619617 -0.14576486 -0.04530847 -0.052162256 -0.14753692 -0.16422674 -0.15516242 -0.1241008 0.0661729 -0.1591098 0.11170762 -0.1825862 0.32970664 0.15509553 -0.0021417951 0.08318925 -0.09668788 -0.0066259536 0.14706627 0.11955648 0.12365408 0.030721648 0.12489878 -0.056811176 -0.06983656 0.06836784 -0.021492988 -0.17476903 0.0012398432 0.18962626 -0.015189016 -0.05960761 -0.14292045 -0.0734124 -0.007021275 0.11179186 0.06841697 -0.009162207 0.071277075 -0.010969007 0.043917317 0.16228214 -0.1997185 0.10936802 -0.13097656 0.0036055134 -0.15217945 -0.10354929 0.10959448 0.10263282 -0.24809518 0.15841544 0.21672377 -0.07484175 0.0822153 -0.17567036 -0.00018548277 0.17236947 -0.11311864 -0.011300814 0.032442126 -0.0969889 0.12621799 0.24163254 0.10160467 -0.097144045 -0.020060355 -0.032383826 0.072197914 -0.0745731 0.034303244 -0.0028864315 0.13524331 0.01822618 -0.018356457 -0.034269627 -0.018401958 -0.112357475 0.07174155 -0.023292689 0.0073814527 -0.066388644 -0.050156318
28 0.040604364 0.09226309 -0.055962052 0.11771679 -0.012644177 0.028399022 -0.027276834 0.015474539 -0.17374487 0.10587551 -0.11541914 0.09602503 0.08805078 -0.04676847 0.022147557 0.007502211 0.10374533 -0.07046942 0.08229057 -0.092287086 0.12144385 -0.15742041 0.058344793 0.052766822 -0.2512387 -0.12869908 0.0734101 0.15178254 0.17867084 0.057674047 -0.018135749 0.10347958 0.11871439 -0.17702033 -0.084719256 -0.062022142 0.12625393 -0.10957847 0.023944207 -0.19063109 -0.21233538 -0.05065256 0.008453864 0.15268263 -0.12887383 -0.12334063 -0.13755377 -0.036957324 -0.051791374 -0.1454866 -0.16735551 -0.15584703 -0.13147695 0.061538767 -0.14916134 0.11416533 -0.16924548 0.32371196 0.14666569 0.0016141959 0.0840907 -0.08627735 -0.00026083604 0.14361112 0.11627654 0.1317549 0.028925657 0.14258721 -0.061481304 -0.070646144 0.073215276 -0.011039871 -0.17844215 0.000533875 0.20318003 -0.01518927 -0.06461542 -0.14546974 -0.0712896 -0.014432775 0.11451581 0.06933698 -0.020949528 0.06741403 -0.01958944 0.042268097 0.15570797 -0.20281543 0.10515742 -0.14003175 0.01203231 -0.1496222 -0.10182026 0.10960081 0.10658302 -0.24839845 0.16078928 0.22062105 -0.066930875 0.07621212 -0.18356799 -0.006449871 0.18188033 -0.113927916 -0.0031908723 0.03507171 -0.09240815 0.12309209 0.24951613 0.10513115 -0.099107124 -0.028324574 -0.03987933 0.081350215 -0.07228967 0.022904823 -0.0063802744 0.13213322 0.021147037 -0.025045924 -0.028845351 -0.021930981 -0.121313535 0.06879745 -0.013457123 0.02051353 -0.06614351 -0.043780282
7 0.051271398 -0.075946994 -0.007989883 0.15003139 0.013312079 0.041219495 -0.058743045 -0.0037849196 -0.1274061 0.034645293 -0.11428158 -0.002585501 0.019348677 -0.13483663 -0.105033495 -0.20513187 0.068605416 0.09637914 0.14115144 0.004658233 0.09966843 -0.1337652 -0.038110312 0.038824473 -0.26514024 -0.16581027 0.1813253 0.010920498 0.041344017 0.14669634 0.04009496 0.1125581 0.13100342 -0.07121298 -0.1488187 -0.19918682 0.1313003 0.105619684 0.07684484 -0.16479222 -0.12666245 -0.024741584 0.108872585 -0.03826812 -0.13574174 0.05142816 -0.008678652 0.02303516 0.03287596 -0.12758403 -0.15144671 -0.20093468 -0.2572207 -0.008604843 -0.12916175 0.19672078 0.040716365 0.22575873 0.0077232765 -0.033310436 0.036325905 0.12585159 0.025941938 0.10821804 -0.08867256 0.20207627 -0.093010254 0.27627212 -0.08036397 -0.03128541 0.20135725 0.08594837 -0.13348296 0.03141288 0.20047887 -0.050898742 -0.1344222 -0.046338204 0.004923621 -0.06975147 0.03117328 0.01080567 -0.1561471 0.036325745 -0.082849964 0.10148234 0.014398945 -0.112933464 0.14897726 -0.14311853 0.08213689 -0.07251428 -0.15598726 0.032142155 0.07584547 -0.19033735 0.19776468 0.19638301 0.122847706 0.03790523 -0.20843948 -0.062254153 0.21318299 -0.22865522 0.065304816 -0.035004675 -0.0608242 0.105160914 0.26669416 0.20651563 -0.19104469 -0.06440176 -0.054207765 0.061608445 0.007649479 -0.14697996 -0.02846654 0.13554573 0.12643695 -0.10198742 0.10682274 -0.020164987 -0.06942881 -0.0212471 0.07666367 0.17626306 -0.12261447 0.11402632
6 0.047218625 -0.07361419 -0.0059171286 0.14260498 0.011470495 0.043240547 -0.058453646 -0.00049929 -0.12759304 0.0386568 -0.11469612 -0.010357643 0.014713889 -0.13803768 -0.103326425 -0.21038607 0.065393515 0.09990246 0.13963675 0.011904181 0.094125286 -0.13647917 -0.031040616 0.039449435 -0.26549822 -0.16419502 0.17627785 0.010538672 0.040033802 0.14678764 0.049827516 0.11742909 0.13125803 -0.07429109 -0.14953777 -0.20261934 0.13099308 0.10962629 0.08113508 -0.16016154 -0.12228683 -0.027250312 0.110728554 -0.037419148 -0.13710535 0.054073613 -0.0064744498 0.019819818 0.033982947 -0.13054155 -0.14134967 -0.19514802 -0.25009033 -0.009381981 -0.12768006 0.18874207 0.042269852 0.21154657 0.0028073306 -0.037098307 0.036263414 0.12746815 0.028877402 0.10437135 -0.09319466 0.201283 -0.09014723 0.27500844 -0.08297818 -0.028679019 0.19750617 0.088871494 -0.12516023 0.028042907 0.19091897 -0.05076102 -0.1282479 -0.043369293 0.012634996 -0.07704915 0.028659908 0.004442563 -0.15657431 0.03750452 -0.07952697 0.102330826 0.00857206 -0.108087204 0.14735255 -0.14006108 0.08268901 -0.064902194 -0.14700598 0.034645025 0.075704604 -0.18721959 0.1928887 0.19583668 0.12551135 0.032213453 -0.20413263 -0.066836976 0.20934999 -0.22000591 0.07212647 -0.03683124 -0.06451109 0.09639845 0.25841177 0.20818606 -0.18779236 -0.06890243 -0.054724324 0.05799606 0.011753119 -0.1498629 -0.030523991 0.13689674 0.13302608 -0.10243523 0.1050401 -0.012591411 -0.06055451 -0.023219101 0.07142014 0.17030238 -0.11662207 0.113050826
9 0.04401784 0.043041285 -0.04583225 0.12099989 -0.004862515 0.034406587 -0.037565995 0.0065920437 -0.153157 0.08982372 -0.11133198 0.06666553 0.06209766 -0.07842772 -0.015765376 -0.057280567 0.08705138 -0.019283097 0.10163623 -0.065334946 0.115466334 -0.15178266 0.028589675 0.053117234 -0.25468343 -0.14300501 0.10700686 0.1054429 0.13927439 0.08610521 0.006327444 0.109379694 0.11933625 -0.14142112 -0.100115955 -0.10356178 0.12873174 -0.04159919 0.034801885 -0.17897162 -0.18405706 -0.04378903 0.038456183 0.09871089 -0.12905054 -0.06830725 -0.100022234 -0.022560285 -0.02070209 -0.13796654 -0.16142227 -0.16554345 -0.16573092 0.03736961 -0.14526829 0.13819559 -0.1036758 0.28769502 0.09781881 -0.016359124 0.0649074 -0.018963244 0.00282118 0.1302185 0.044983532 0.15204415 -0.007331478 0.17988844 -0.06734868 -0.055357736 0.114046164 0.012889012 -0.1634498 0.01340589 0.19799072 -0.022267064 -0.08239621 -0.1095506 -0.051312737 -0.033197924 0.087562256 0.050157785 -0.060532875 0.057375994 -0.033311952 0.065846205 0.1076814 -0.17294492 0.12451223 -0.13642304 0.029503578 -0.12782156 -0.11628082 0.08839336 0.099140346 -0.22779645 0.17357832 0.21865 -0.007999003 0.061447877 -0.18364094 -0.018955141 0.18427499 -0.14754242 0.014013651 0.011708465 -0.081337176 0.11922658 0.24773106 0.13586321 -0.12919146 -0.040023647 -0.03883898 0.07155307 -0.04796509 -0.034057934 -0.007104465 0.13860406 0.057067633 -0.045227364 0.013000094 -0.016203769 -0.0964036 0.039337583 0.013577116 0.06658622 -0.086672574 0.0018690961
8 0.045398176 -0.005911111 -0.032696735 0.1286374 0.0061908327 0.037125785 -0.046487905 0.001788936 -0.14117636 0.06343856 -0.11066674 0.030463614 0.04441532 -0.10535757 -0.056155737 -0.1293861 0.07805009 0.033875033 0.12357115 -0.028620169 0.10363374 -0.14118595 0.001048011 0.043656442 -0.25403687 -0.15025006 0.13778612 0.06033357 0.087086454 0.11103112 0.024636397 0.11137048 0.11591025 -0.11198087 -0.11973294 -0.14553578 0.12429898 0.030513342 0.064064674 -0.16199991 -0.14788516 -0.030371299 0.06828094 0.028063525 -0.1321284 -0.011703534 -0.051140796 8.859104e-05 0.004716925 -0.12533239 -0.14851542 -0.16958521 -0.20252186 0.018540312 -0.13687652 0.156779 -0.0318796 0.2449457 0.047257066 -0.019543257 0.052834235 0.05045801 0.011419291 0.1135217 -0.018519614 0.17483465 -0.045520753 0.21476746 -0.06523336 -0.04399313 0.15006451 0.05239137 -0.14210461 0.025106683 0.19352241 -0.035485934 -0.10206521 -0.08245568 -0.020036563 -0.053690862 0.05506455 0.027561633 -0.09940828 0.04925567 -0.05992165 0.08719893 0.05449648 -0.13440618 0.12495323 -0.13208373 0.04414242 -0.0924129 -0.12124044 0.054729767 0.08407211 -0.20405304 0.17645653 0.19456328 0.057241794 0.05240599 -0.18433371 -0.036964584 0.18701954 -0.17845497 0.04300586 -0.012316663 -0.07505005 0.10282761 0.23874296 0.16646805 -0.14705367 -0.051347394 -0.045166086 0.06569511 -0.016475266 -0.08011951 -0.015989214 0.12638488 0.09001321 -0.06329269 0.05241604 -0.017568424 -0.078951955 0.0044379216 0.035052076 0.111867316 -0.09806188 0.05467764
30 0.03788231 0.080424465 -0.055354882 0.11457804 -0.010691047 0.03066 -0.024699725 0.0109566925 -0.16406128 0.10544202 -0.113418914 0.090932526 0.08050747 -0.05065547 0.02319094 9.138597e-05 0.09491472 -0.06922345 0.07928637 -0.08923534 0.11927246 -0.14808536 0.054536294 0.05053232 -0.24432868 -0.12582225 0.077238545 0.13745184 0.17363629 0.05690769 -0.013777521 0.10235635 0.11427326 -0.16734746 -0.08178553 -0.05982987 0.12466436 -0.102525555 0.018350374 -0.17510508 -0.20123726 -0.04572822 0.012608492 0.14353456 -0.12994245 -0.117957525 -0.1301256 -0.039627567 -0.04689008 -0.14152575 -0.16365032 -0.15607852 -0.12794504 0.05674087 -0.15091217 0.1090984 -0.15615258 0.31571445 0.13585603 -0.005062766 0.082734935 -0.07452314 0.0005333758 0.13759556 0.099359214 0.13138013 0.022394583 0.1418343 -0.052961197 -0.06673979 0.08201435 -0.013456071 -0.17070739 0.003908831 0.19412355 -0.016067721 -0.066095695 -0.13537657 -0.07258272 -0.009688272 0.10481211 0.059437044 -0.01933952 0.06265877 -0.015153808 0.04781984 0.14684886 -0.18901274 0.10887648 -0.12839052 0.0072652837 -0.13847482 -0.100848265 0.10098198 0.10257428 -0.24040766 0.15558527 0.21948197 -0.05633729 0.07722406 -0.17488839 -0.0043963646 0.17673461 -0.11639982 -0.0029959553 0.024709115 -0.088846594 0.12478857 0.23761865 0.11094526 -0.098847196 -0.025624724 -0.034051772 0.07223466 -0.069017954 0.014208 0.0013661054 0.1361933 0.025285218 -0.022425456 -0.020137144 -0.017101692 -0.11083802 0.059997328 -0.01404322 0.025192693 -0.07097694 -0.034579784
20 0.047674604 0.020880925 -0.035586916 0.121314466 0.0056435945 0.03234966 -0.041596714 -0.0019461213 -0.14346358 0.07086828 -0.11346849 0.046030357 0.051929213 -0.07972248 -0.031490177 -0.08101614 0.0853047 -0.00413679 0.10326671 -0.041419793 0.10264267 -0.13940932 0.02107117 0.047573812 -0.24338394 -0.14100887 0.1179308 0.090678915 0.11802761 0.088424474 0.015519582 0.105587535 0.11814805 -0.12737103 -0.1024275 -0.12235093 0.123467565 -0.015775373 0.04842214 -0.16686709 -0.1672489 -0.03217414 0.045878794 0.060298916 -0.12508066 -0.04170301 -0.076274894 -0.015496976 -0.009000097 -0.12937692 -0.15021776 -0.16385886 -0.17887558 0.032941386 -0.13920873 0.14012949 -0.07542785 0.26427895 0.074976034 -0.017020548 0.061796207 0.0077514024 0.011214238 0.12316781 0.025076775 0.1591242 -0.023458168 0.19043718 -0.06030711 -0.0470398 0.1270736 0.031537157 -0.148671 0.017910982 0.19038993 -0.03199836 -0.08511628 -0.09567553 -0.03923213 -0.04182172 0.07586812 0.040634345 -0.07540211 0.058985487 -0.04410452 0.07162689 0.0876949 -0.15434222 0.12085755 -0.13269907 0.034890093 -0.10626054 -0.11687668 0.07364475 0.08622956 -0.21238178 0.16589443 0.19900706 0.016379138 0.058710504 -0.1800022 -0.02887526 0.18348536 -0.15720065 0.02408461 0.0016409622 -0.07851307 0.104428865 0.23371184 0.14875293 -0.13044044 -0.048057847 -0.039355744 0.06680037 -0.033720095 -0.051040065 -0.018265149 0.13112615 0.065134406 -0.050872613 0.029308869 -0.018525561 -0.08776638 0.020285688 0.024977965 0.08186504 -0.0823666 0.023116611
25 0.04168805 0.09462323 -0.05847594 0.11423602 -0.006441088 0.020401482 -0.023122124 0.008014529 -0.17035839 0.10428124 -0.10825093 0.09616375 0.08449495 -0.046018414 0.019258844 0.011516194 0.10610358 -0.07402734 0.07929751 -0.098023586 0.11009097 -0.15580896 0.057936076 0.051016614 -0.25471368 -0.13674746 0.06639675 0.15920785 0.18847425 0.05493222 -0.01764278 0.103793636 0.12176434 -0.17580618 -0.08293585 -0.060327124 0.120071664 -0.11295808 0.01945524 -0.19085318 -0.21701545 -0.04981338 0.0026339348 0.151195 -0.13412035 -0.12475435 -0.1364368 -0.044626396 -0.047054533 -0.14916928 -0.16217373 -0.15150025 -0.12542006 0.06783791 -0.14748704 0.12001461 -0.1787269 0.31754348 0.14800954 6.873727e-05 0.08314617 -0.093920805 -0.005288238 0.13668063 0.1161296 0.1307679 0.026865354 0.14281338 -0.0634533 -0.07552215 0.07410943 -0.014491611 -0.18064573 0.0034357456 0.19887754 -0.015477933 -0.06529613 -0.14904155 -0.06883046 -0.008530589 0.11369813 0.06983214 -0.021036753 0.07296276 -0.015701009 0.04289083 0.1556023 -0.20711407 0.10987498 -0.13976659 0.0137963025 -0.15284806 -0.10851305 0.10428318 0.103497185 -0.24664591 0.16401 0.21524812 -0.06952026 0.07726558 -0.18430614 -0.006021381 0.18329766 -0.11594602 -0.005948533 0.029373575 -0.09033166 0.12186741 0.2491749 0.10840712 -0.10516408 -0.026542772 -0.04422629 0.08123967 -0.07543339 0.028074844 -0.011153779 0.13562423 0.027469102 -0.024744505 -0.025611458 -0.017339546 -0.1242193 0.068399735 -0.012077881 0.016824335 -0.06788522 -0.04651946
5 0.043623745 -0.058365896 -0.006683933 0.13901298 0.012619631 0.042823195 -0.06044734 0.00044361383 -0.12492994 0.039253984 -0.11113605 0.0033098045 0.026164364 -0.12362189 -0.0950106 -0.18367727 0.06811892 0.08340667 0.13118017 0.00024389173 0.09210162 -0.1337346 -0.025588032 0.040260423 -0.25670198 -0.16368906 0.16508602 0.023040645 0.054920044 0.13210578 0.041655447 0.10670628 0.12613282 -0.08011246 -0.13340545 -0.18113934 0.12887916 0.086499356 0.0739604 -0.16195972 -0.13203777 -0.03026328 0.09313911 -0.022500006 -0.1302797 0.031152714 -0.022899808 0.017390747 0.031755853 -0.12946995 -0.14528205 -0.18655641 -0.23629068 -0.0009416192 -0.13013832 0.17971322 0.021116445 0.21791057 0.01312807 -0.034439128 0.031488806 0.10522482 0.019935885 0.103856385 -0.068332866 0.1853636 -0.07673469 0.25356686 -0.08387361 -0.033812806 0.18012343 0.07246397 -0.13589244 0.030474829 0.18836807 -0.044407528 -0.1188984 -0.054482434 -0.000928613 -0.06275594 0.03829174 0.016668243 -0.14512005 0.041477613 -0.077236146 0.09835968 0.02231985 -0.11927007 0.14141475 -0.14207618 0.075106315 -0.08036754 -0.14514863 0.03814513 0.07556575 -0.18570445 0.1828807 0.19600089 0.09884705 0.03792971 -0.19602542 -0.0597601 0.20605852 -0.20424366 0.059050996 -0.029771645 -0.064013 0.09818216 0.25666693 0.19154869 -0.17996731 -0.061394997 -0.053185627 0.061210845 -0.0027217683 -0.13153554 -0.029307019 0.13688956 0.11613923 -0.0920686 0.092023864 -0.014074078 -0.07046288 -0.014964243 0.06385673 0.1541873 -0.110702135 0.093952544
26 0.041703623 0.073592134 -0.051965784 0.11677626 -0.01044834 0.023212949 -0.02295274 0.014054858 -0.16260058 0.102267645 -0.11037373 0.08488315 0.07569549 -0.049373105 0.014235914 -0.0034816994 0.09401514 -0.05391172 0.084187396 -0.088778704 0.11071084 -0.1544762 0.050480895 0.052490804 -0.24551618 -0.13454548 0.0744547 0.13917553 0.16907845 0.06341136 -0.011444379 0.10575365 0.11565027 -0.16562906 -0.08270375 -0.06840128 0.11839989 -0.089747794 0.023995852 -0.18196447 -0.19842017 -0.047118645 0.009198314 0.13600127 -0.12850758 -0.102886945 -0.12620296 -0.032242436 -0.041051216 -0.13988836 -0.15766664 -0.14491701 -0.1304191 0.05657418 -0.13963258 0.11994953 -0.153894 0.3035865 0.1303435 -0.004748767 0.07519267 -0.07028653 0.0040507927 0.12834255 0.09796213 0.12984034 0.020693116 0.14621548 -0.061266202 -0.06468886 0.07825421 -0.008511066 -0.16510743 0.0025823733 0.18910074 -0.017460216 -0.06654223 -0.13633873 -0.05959894 -0.01700122 0.10536648 0.05941623 -0.028074397 0.06101213 -0.020172857 0.047680654 0.14069077 -0.18735151 0.10306363 -0.1346626 0.017647697 -0.13745521 -0.09993171 0.098239146 0.103083655 -0.22881588 0.15301156 0.21166563 -0.048360035 0.07530804 -0.17452031 -0.0057706945 0.17604409 -0.11448002 -0.0030608182 0.025455484 -0.08978197 0.12128869 0.24155082 0.109683916 -0.10403833 -0.027491214 -0.042969692 0.0747953 -0.06740789 0.009243646 -0.010121433 0.12630887 0.0297392 -0.030299626 -0.020726299 -0.02261809 -0.11483837 0.05565599 -0.009047052 0.03161407 -0.06907258 -0.03465168
29 0.04431729 0.054679938 -0.04895464 0.121443726 0.0004231987 0.03477286 -0.0330131 0.0064575076 -0.16308324 0.09583962 -0.11299137 0.07679715 0.069474615 -0.06404461 -0.002640719 -0.034182433 0.090652674 -0.0416774 0.095630154 -0.07352311 0.11357855 -0.15206675 0.042442396 0.053263653 -0.2541501 -0.14140658 0.0974525 0.12027818 0.15200405 0.07240548 0.001704344 0.11045974 0.114276 -0.15543203 -0.09520607 -0.08770681 0.12571959 -0.07038738 0.034305356 -0.176281 -0.19483502 -0.043759394 0.026846379 0.1108074 -0.13357498 -0.086770356 -0.113943726 -0.032038204 -0.030766804 -0.13871516 -0.15903339 -0.1650384 -0.15643516 0.048764184 -0.15235016 0.12930663 -0.12906083 0.29840127 0.11587342 -0.009671807 0.0745493 -0.044561 0.0032723353 0.13798076 0.073510736 0.14725421 0.0019313837 0.16526493 -0.06466838 -0.058264546 0.105455115 0.007856208 -0.16320089 0.010710145 0.19732009 -0.021810057 -0.075113535 -0.1233362 -0.060127437 -0.025492728 0.08909063 0.050841317 -0.048881657 0.06649645 -0.030325955 0.05572774 0.12539536 -0.17764403 0.11548409 -0.1304241 0.023557398 -0.13556413 -0.10808139 0.090220295 0.09927746 -0.23863348 0.16424717 0.21541338 -0.02485431 0.07257367 -0.18164054 -0.016269239 0.18743762 -0.1385461 0.009165535 0.014122768 -0.091607526 0.119589284 0.24243763 0.12477545 -0.11728996 -0.033989806 -0.03564691 0.072401464 -0.05941002 -0.011238266 -0.011103592 0.13419162 0.04690439 -0.0327462 -0.002728134 -0.017179329 -0.10805675 0.043152984 0.001427087 0.049379446 -0.08238697 -0.012755362
31 0.04385477 0.07437826 -0.059403285 0.11852223 -0.012531711 0.03407122 -0.026181629 0.013100974 -0.16879746 0.105825596 -0.11065333 0.09398316 0.079459034 -0.054789018 0.021170633 0.001294034 0.101119764 -0.06841777 0.07982456 -0.09233061 0.118933365 -0.15161328 0.050230063 0.05535957 -0.25014344 -0.12654017 0.0772246 0.13396487 0.16615327 0.058717497 -0.008208818 0.09916317 0.11649314 -0.1640754 -0.085924335 -0.062866636 0.11949434 -0.09930398 0.020687018 -0.17783248 -0.20169196 -0.042921185 0.020712325 0.14726098 -0.12878513 -0.11059884 -0.13486424 -0.035334732 -0.042651 -0.14225906 -0.1671242 -0.15587892 -0.13504553 0.05960216 -0.1471915 0.11383826 -0.15813962 0.31816816 0.13439691 -0.002917644 0.07860916 -0.0705537 0.004548907 0.13500112 0.09622309 0.13411352 0.01927437 0.15016551 -0.05304544 -0.061362594 0.085274145 -0.0116548985 -0.16872238 0.0056318245 0.18995057 -0.018607007 -0.06632666 -0.12984742 -0.064560406 -0.016793428 0.09930647 0.06099835 -0.02742223 0.0601808 -0.014278389 0.048997663 0.146416 -0.18576118 0.10531883 -0.12950152 0.014226347 -0.14369518 -0.10515099 0.10867558 0.09502902 -0.23393765 0.15744989 0.21678491 -0.058252353 0.075760156 -0.18133654 -0.0053677456 0.17434035 -0.11818685 -0.0051921485 0.023328688 -0.095770136 0.12742735 0.23847064 0.10538962 -0.10222244 -0.023107652 -0.028698632 0.07241333 -0.06835703 0.017021026 0.0003406658 0.1367998 0.023920197 -0.03373617 -0.016751872 -0.021216778 -0.110165775 0.060577516 -0.011970686 0.02370078 -0.07177191 -0.030767078
11 0.04889861 -0.05303242 -0.016083747 0.13740237 0.008800907 0.04127921 -0.05061085 -0.0016290233 -0.12744662 0.039971903 -0.111695156 0.0031543616 0.02936388 -0.119374156 -0.08721554 -0.17645682 0.066332884 0.07212874 0.13238183 -0.0041649207 0.098236576 -0.12811181 -0.024946732 0.04061208 -0.24710518 -0.15773517 0.15609622 0.029793477 0.04988064 0.12916887 0.032260224 0.10451307 0.11855338 -0.07611575 -0.13450293 -0.17780654 0.118987754 0.081103966 0.06940881 -0.15851137 -0.124705195 -0.025685206 0.09228883 -0.0206877 -0.12958091 0.030813562 -0.01893523 0.01758151 0.022968534 -0.12234056 -0.1435744 -0.17921644 -0.23104699 -0.0012687402 -0.12380074 0.1761589 0.018428653 0.21759349 0.015944595 -0.027215099 0.03665426 0.09967832 0.026499638 0.10171465 -0.063125715 0.17926832 -0.076083854 0.24725422 -0.077575706 -0.033313274 0.17173971 0.06874184 -0.1272024 0.025342608 0.18913156 -0.04732506 -0.11730696 -0.05630224 5.8375153e-05 -0.0626565 0.037106965 0.0104600275 -0.13752857 0.036316175 -0.067280054 0.09291553 0.02076588 -0.115659885 0.1298166 -0.13328403 0.07020553 -0.077014424 -0.13483262 0.03697038 0.074916735 -0.17922366 0.18007629 0.18538097 0.10037028 0.034335755 -0.1893237 -0.054177742 0.19491923 -0.20083956 0.053493652 -0.030854007 -0.060991563 0.097268455 0.24544092 0.18884668 -0.16764401 -0.06236355 -0.05024474 0.05949418 -0.00023838296 -0.124285035 -0.024920596 0.12744908 0.112872615 -0.08927314 0.08474229 -0.019325074 -0.06874763 -0.013421467 0.058367506 0.15048201 -0.11055001 0.090802655
15 0.03792112 0.05506605 -0.043878768 0.115595825 -0.00209895 0.034741797 -0.029564159 0.004702943 -0.15232672 0.0902168 -0.10773059 0.07038022 0.06874217 -0.059235796 0.00024265837 -0.03048263 0.08579834 -0.03987322 0.089203425 -0.073844716 0.10710056 -0.13937128 0.035737436 0.050959326 -0.2381133 -0.13184053 0.093840994 0.11147118 0.14243475 0.069018565 -0.0046339734 0.10026788 0.10760926 -0.14670071 -0.08489784 -0.07934624 0.11720877 -0.06786509 0.031248989 -0.16652513 -0.18133035 -0.039653614 0.027250847 0.10985073 -0.12619923 -0.080689475 -0.11013112 -0.024052892 -0.03228583 -0.12926409 -0.14765385 -0.15639198 -0.1413888 0.04405048 -0.1442204 0.119175054 -0.120300196 0.28754365 0.1100496 -0.00844942 0.073259406 -0.039318103 0.0025964607 0.13171488 0.06581044 0.13191144 7.330504e-05 0.15325184 -0.05547483 -0.055785213 0.09454009 0.007862798 -0.16003434 0.0071012597 0.18738352 -0.021868125 -0.076019235 -0.11797993 -0.053196527 -0.024193488 0.08484768 0.051526893 -0.041082818 0.05788344 -0.025879337 0.05718241 0.12171381 -0.16630085 0.1144126 -0.12216647 0.021734998 -0.13011831 -0.10684039 0.09389418 0.095124766 -0.2239601 0.15902856 0.20643821 -0.030940475 0.0665928 -0.17422679 -0.0116377305 0.17647307 -0.1262606 0.008044053 0.013797996 -0.082417436 0.11448735 0.23089756 0.11662938 -0.10942963 -0.030233596 -0.029179342 0.069357224 -0.05190728 -0.015001855 -0.0052796286 0.12788552 0.04458544 -0.033431973 0.0009965636 -0.01885851 -0.098100685 0.04181254 -0.0010392854 0.049660124 -0.07464666 -0.015069013
23 0.043048188 0.047230642 -0.044393793 0.11411838 -0.0042260876 0.030403512 -0.034725055 0.009016137 -0.1524882 0.0908154 -0.113436274 0.068272255 0.06452638 -0.06551771 -0.0028669266 -0.03876609 0.090467006 -0.037124537 0.089404896 -0.06917345 0.11300016 -0.14535269 0.03470825 0.048442762 -0.23799099 -0.13288878 0.093508855 0.111887105 0.14526269 0.07680942 -0.0024173898 0.10129252 0.116816744 -0.14803371 -0.08883247 -0.08206066 0.12249149 -0.059214532 0.026902858 -0.17324944 -0.18475048 -0.041446485 0.030907692 0.10700931 -0.12711677 -0.078945 -0.107577026 -0.02098519 -0.027637327 -0.13813905 -0.15348093 -0.15880312 -0.14556865 0.040784694 -0.13892768 0.12258334 -0.12221571 0.28935376 0.10886572 -0.014663159 0.06806287 -0.03524963 0.0060161063 0.12603375 0.059971645 0.13795738 -0.0041911365 0.1629967 -0.05959833 -0.05339512 0.100678176 0.005324873 -0.15994251 0.009641152 0.18501346 -0.0180521 -0.07253781 -0.11070631 -0.056888252 -0.022379922 0.08962962 0.049928624 -0.048908103 0.05811323 -0.028074976 0.05601587 0.11838788 -0.16634661 0.11151756 -0.12730354 0.021480702 -0.12766378 -0.106997326 0.09068085 0.09560485 -0.21897587 0.16183192 0.20455681 -0.026517246 0.06147575 -0.17268915 -0.013167606 0.17963967 -0.13235684 0.0060161175 0.013430957 -0.08353761 0.11837643 0.23724367 0.122703716 -0.11695893 -0.033802006 -0.036993932 0.07008842 -0.054040387 -0.01646493 -0.0036286167 0.13058166 0.045788985 -0.038093302 0.0037318538 -0.022082768 -0.096922465 0.046934046 0.0008254637 0.053096306 -0.07853991 -0.009876815
21 0.037133016 0.06919539 -0.047049858 0.11119837 -0.007283063 0.034333292 -0.02776626 0.009624402 -0.15897281 0.099219956 -0.109449536 0.08267934 0.068019 -0.05388638 0.015884457 -0.011941169 0.08929806 -0.052862994 0.08537066 -0.08374245 0.116131365 -0.14975159 0.046802733 0.0514044 -0.2449289 -0.12574531 0.08267037 0.12515332 0.16002958 0.062418714 -0.008276429 0.098006405 0.114008695 -0.16098548 -0.087292455 -0.06370455 0.12208824 -0.08616206 0.021698952 -0.17770603 -0.19332606 -0.04199316 0.022644758 0.12860738 -0.12852845 -0.102745935 -0.12293984 -0.03477299 -0.0376458 -0.13862917 -0.15906242 -0.15619637 -0.13588169 0.052267775 -0.14937687 0.114630066 -0.14318119 0.30608368 0.12223707 -0.007502728 0.07975168 -0.057665102 -0.0012437451 0.13957459 0.08245574 0.13441412 0.013729761 0.14837457 -0.05854478 -0.059791908 0.084695786 0.00050088007 -0.16753057 0.003995964 0.18869387 -0.016452957 -0.07276648 -0.12132839 -0.066534385 -0.013545098 0.092746876 0.05416748 -0.02924661 0.05965138 -0.0198057 0.048941925 0.13614507 -0.1812789 0.10816794 -0.12343658 0.01097097 -0.13844098 -0.100170724 0.09331599 0.09930445 -0.23292889 0.1614522 0.21008644 -0.04693458 0.067306325 -0.1787005 -0.012098099 0.17715752 -0.12227228 -0.00016416324 0.022076756 -0.08567537 0.117638916 0.23568334 0.116607405 -0.104053855 -0.025924329 -0.028812328 0.07199511 -0.06396032 0.0007761319 -0.00220291 0.13472332 0.037549764 -0.027814168 -0.013730707 -0.019712433 -0.10756586 0.05701436 -0.0042661536 0.03428879 -0.07048632 -0.027434366
22 0.043688696 -0.023050213 -0.02744871 0.13352022 0.009121192 0.03511896 -0.04904067 -0.00027695787 -0.13752471 0.05579175 -0.115208946 0.023335945 0.035289053 -0.11006875 -0.06821739 -0.14520505 0.07363827 0.048533153 0.12519747 -0.012254509 0.10513923 -0.13885112 -0.0037412648 0.048413247 -0.25606883 -0.15934499 0.14679444 0.050480776 0.0834523 0.11749678 0.029714111 0.11654717 0.12307014 -0.10201221 -0.12868789 -0.16768777 0.12873217 0.04983249 0.06887012 -0.16471623 -0.14364308 -0.027975915 0.074963175 0.011010775 -0.13117746 0.0011732796 -0.041301526 0.0005469927 0.010918183 -0.13038592 -0.15151979 -0.17404369 -0.21854472 0.012520605 -0.13597298 0.16556571 -0.021365073 0.24576613 0.039826088 -0.026497267 0.05050465 0.063612625 0.019382652 0.116281666 -0.033681262 0.18035713 -0.05199652 0.23119143 -0.071547695 -0.04214701 0.1570577 0.056195814 -0.13865483 0.022435222 0.19557223 -0.03554421 -0.111817665 -0.07719466 -0.016823778 -0.055665214 0.05923945 0.024018876 -0.11877917 0.051250584 -0.06768818 0.08450909 0.04661396 -0.13311742 0.13332246 -0.1375533 0.052877024 -0.092385866 -0.12673852 0.05647585 0.08970726 -0.19806048 0.17676802 0.1972224 0.069696754 0.041040156 -0.1929553 -0.045242663 0.19503944 -0.1906963 0.050907474 -0.016503667 -0.07318016 0.100553006 0.25285143 0.17402753 -0.15452123 -0.06424115 -0.051790465 0.06611305 -0.011906204 -0.10251579 -0.025382381 0.12885925 0.100794226 -0.07361189 0.06382249 -0.01640592 -0.077435814 0.0035018595 0.05032991 0.12708257 -0.09685529 0.06815171
27 0.036569446 0.061623763 -0.051786505 0.10915952 -0.0012871003 0.03068336 -0.029244358 0.011728 -0.1516163 0.09025435 -0.107968576 0.075900786 0.06661764 -0.059106257 0.011715588 -0.011926001 0.09326459 -0.051076435 0.0802742 -0.07674766 0.106534265 -0.14156751 0.03998639 0.050772995 -0.23476028 -0.12590034 0.077842616 0.12204114 0.15183096 0.06392139 -0.007432876 0.09856475 0.10666899 -0.15220092 -0.08577282 -0.071059234 0.11425027 -0.07984018 0.021887193 -0.17130017 -0.18779339 -0.036856364 0.022170197 0.12207146 -0.124651164 -0.09801612 -0.11286297 -0.030561147 -0.038217716 -0.13678984 -0.1515734 -0.15145756 -0.1364645 0.051767547 -0.13623446 0.117121294 -0.13692677 0.28623992 0.114305906 -0.006599743 0.073196195 -0.054298602 -0.0023244112 0.1290337 0.08151925 0.1312077 0.0087733 0.14493482 -0.055387262 -0.060110312 0.08190571 -0.0004401891 -0.15579966 0.0057196305 0.18266569 -0.017475901 -0.06989118 -0.121638246 -0.059397124 -0.018602446 0.09287599 0.05474655 -0.035577964 0.06228806 -0.022316571 0.047769684 0.12825948 -0.17438267 0.10723407 -0.124666624 0.013967155 -0.12586053 -0.10140205 0.0892235 0.09442306 -0.22282295 0.15302218 0.20366333 -0.03796237 0.06972192 -0.17243563 -0.005753939 0.17052166 -0.11771407 -5.850609e-05 0.016458027 -0.08599789 0.11217802 0.22268727 0.11344399 -0.10222736 -0.02572685 -0.035700846 0.06669961 -0.05666619 0.0012206448 -0.0036212055 0.12713948 0.035338756 -0.03181916 -0.009510873 -0.019309752 -0.105264895 0.048563574 -0.007956166 0.037070345 -0.070006184 -0.019713793
13 0.044428535 -0.0035101266 -0.027491868 0.13234974 0.008700018 0.03523293 -0.041580588 -0.0056941295 -0.14242433 0.05816222 -0.112216905 0.033381548 0.046161007 -0.096575975 -0.04818711 -0.12572683 0.08187421 0.023175156 0.11881164 -0.031243103 0.1041074 -0.13607448 0.0053183925 0.04102043 -0.2536972 -0.1496202 0.1383373 0.06315538 0.0948107 0.103941336 0.021708386 0.110269584 0.12450308 -0.114225835 -0.121978134 -0.14362875 0.12290106 0.026527496 0.062374365 -0.16622573 -0.15322988 -0.034390297 0.06891489 0.025653984 -0.13382371 -0.013174584 -0.053166345 -0.007715194 0.0053796945 -0.13420925 -0.1481969 -0.17571267 -0.20102043 0.022762055 -0.13708031 0.15967636 -0.039933667 0.2557372 0.05476856 -0.022684751 0.04961864 0.04381327 0.01004641 0.11659933 -0.011330789 0.17276251 -0.04104194 0.22077058 -0.06757109 -0.04785319 0.1473171 0.050029367 -0.14167677 0.023167813 0.19338933 -0.037318468 -0.10342283 -0.082219586 -0.019221464 -0.04988052 0.057780333 0.032852348 -0.10686643 0.0528712 -0.0540691 0.08123019 0.062888384 -0.14180739 0.12511629 -0.13581172 0.047569893 -0.09439679 -0.12549618 0.05971285 0.08755215 -0.20497116 0.17764734 0.19185232 0.048957843 0.053374663 -0.18808013 -0.04003487 0.1918661 -0.17725651 0.038975727 -0.011025935 -0.07415597 0.0999678 0.24224979 0.17017879 -0.14843775 -0.055174083 -0.0486889 0.07034826 -0.016547114 -0.08094292 -0.02416294 0.12956004 0.08963695 -0.06376033 0.053874392 -0.013284622 -0.078290224 0.004944497 0.038880087 0.10910571 -0.09563265 0.04617949
16 0.041111894 0.05378967 -0.04832594 0.1136985 -0.003848528 0.033384047 -0.033608146 0.0052451594 -0.15463863 0.093937315 -0.11553697 0.07597253 0.06422289 -0.06931578 0.0007122642 -0.03662469 0.08603829 -0.041485753 0.08946673 -0.07423656 0.10931889 -0.14280249 0.04099631 0.048401218 -0.24642889 -0.13061093 0.09235567 0.11323019 0.14484175 0.072903946 -0.0020141525 0.10097006 0.10946301 -0.14915767 -0.095126174 -0.080243886 0.12292232 -0.06523736 0.031258635 -0.17496379 -0.18652643 -0.039927203 0.028303884 0.11124047 -0.1286067 -0.08092522 -0.11224173 -0.023261538 -0.030151626 -0.13512397 -0.15289561 -0.15609454 -0.14741677 0.04077357 -0.14617917 0.12546803 -0.1256244 0.29126036 0.10804749 -0.011697416 0.07437899 -0.039972305 0.00078700215 0.13480684 0.06111878 0.13800783 0.0005235048 0.16517699 -0.054894015 -0.055870354 0.097843654 0.0054979986 -0.15999645 0.009993803 0.18794361 -0.02380374 -0.07586097 -0.11722159 -0.05284593 -0.02439225 0.088874936 0.052654877 -0.04645005 0.0596648 -0.02398708 0.061366413 0.11724955 -0.17058145 0.11284402 -0.1244566 0.019212876 -0.1245507 -0.1062821 0.091421865 0.09681404 -0.22267191 0.16277175 0.21014482 -0.021470685 0.065431684 -0.17592435 -0.01612226 0.1770961 -0.13199362 0.0115026 0.009305723 -0.086872436 0.119428664 0.23742567 0.12419149 -0.114236936 -0.032633908 -0.03233339 0.071063586 -0.051609732 -0.014553846 -0.007109463 0.12864982 0.041851822 -0.040217374 -0.0004930997 -0.014178597 -0.09710488 0.046772115 -0.0032717802 0.04922045 -0.08152014 -0.008768515
17 0.04932244 -0.07484442 -0.003535212 0.14127328 0.016197328 0.038985066 -0.061521847 0.00043227672 -0.1203718 0.033028733 -0.11190246 -0.010603503 0.016442802 -0.13039301 -0.103573434 -0.20505734 0.06556571 0.09946528 0.13572407 0.01085299 0.093866915 -0.1334779 -0.03628321 0.041758616 -0.25476292 -0.15992786 0.17455328 0.011384475 0.033421982 0.14279397 0.043284446 0.11001688 0.12824257 -0.06841198 -0.13962068 -0.19718745 0.12128458 0.10627398 0.073563896 -0.1582718 -0.12264826 -0.027454892 0.10477587 -0.034663673 -0.12690432 0.045803525 -0.005766481 0.019767543 0.03707941 -0.12730265 -0.14424643 -0.18896022 -0.24497733 -0.007611761 -0.12533255 0.18679814 0.039488934 0.20784989 -0.00043753855 -0.034515508 0.028789934 0.11984948 0.030024031 0.0995605 -0.08769488 0.19443761 -0.08318494 0.26039544 -0.0822557 -0.026905268 0.19256888 0.08395581 -0.12534167 0.024916558 0.18664706 -0.049597677 -0.12854315 -0.04539497 0.010986551 -0.06661352 0.03442655 0.00509042 -0.15731901 0.034274645 -0.079708815 0.09653412 0.007307387 -0.11052666 0.13918315 -0.1386733 0.08108235 -0.064773016 -0.14886484 0.03147853 0.07872354 -0.18311311 0.18424298 0.1914272 0.121185854 0.034402806 -0.19719571 -0.06178433 0.20151666 -0.21729885 0.06560498 -0.038937006 -0.060418732 0.09732425 0.2548272 0.20094413 -0.18700613 -0.062429458 -0.05675792 0.0607761 0.010978762 -0.1465964 -0.03011484 0.13199626 0.12570818 -0.09847429 0.10349724 -0.018456414 -0.061671667 -0.025232319 0.07456577 0.17079704 -0.11451018 0.10692539
18 0.04454781 -0.009072714 -0.03237581 0.1260054 0.010636671 0.038464833 -0.044065524 -0.0024585968 -0.13642387 0.057802662 -0.11147016 0.029185044 0.041950677 -0.10084529 -0.052174684 -0.12196723 0.07458428 0.024504494 0.12098276 -0.023328116 0.10365518 -0.13869031 -0.0022712408 0.04129798 -0.24841067 -0.14546195 0.13504542 0.062463194 0.0885943 0.10838657 0.019915521 0.11268661 0.12046478 -0.10781947 -0.114476986 -0.14957249 0.12402169 0.027067842 0.063668005 -0.16125925 -0.15014821 -0.029940294 0.07102375 0.024617525 -0.13045867 -0.012699395 -0.057575222 -0.0022137405 0.003713158 -0.12808073 -0.14551827 -0.17035887 -0.20382243 0.015371937 -0.13142362 0.15402673 -0.036210988 0.24955028 0.05111497 -0.02139019 0.054067142 0.041144405 0.012459377 0.11253403 -0.010391927 0.16968478 -0.04290043 0.20983727 -0.07108808 -0.03964575 0.14778376 0.051662516 -0.13780609 0.0170071 0.1887901 -0.03854025 -0.09748268 -0.084407695 -0.01841793 -0.050722405 0.062453732 0.031052615 -0.10272005 0.055117004 -0.054964393 0.0842295 0.056470513 -0.13937455 0.12803547 -0.13412382 0.043650303 -0.09179867 -0.12707882 0.06275378 0.08429218 -0.20428267 0.17387019 0.19605164 0.047827967 0.047563028 -0.1848759 -0.035460033 0.19263926 -0.1748518 0.041707464 -0.012955678 -0.07074984 0.10501253 0.23798335 0.16707397 -0.1489511 -0.05402003 -0.04167528 0.06345517 -0.02093853 -0.083201885 -0.015340493 0.13070385 0.08484803 -0.06279745 0.05041661 -0.012633252 -0.08134898 0.0076985518 0.041987166 0.10778654 -0.093435645 0.051016446
10 0.046544068 0.045507193 -0.047935244 0.12188249 -0.0018385535 0.037783824 -0.031978227 0.003937293 -0.16268452 0.091131866 -0.11448847 0.06968512 0.06548385 -0.069783226 -0.005886334 -0.04523932 0.09633439 -0.029142968 0.09540301 -0.06916554 0.11033215 -0.14823727 0.03231338 0.04927069 -0.2595098 -0.1451602 0.10348683 0.110494174 0.14672926 0.07840574 0.004409445 0.10992664 0.12369093 -0.14708284 -0.09751429 -0.10032782 0.12396866 -0.051635403 0.034764484 -0.17958167 -0.18671815 -0.045369904 0.038357712 0.09932451 -0.13289581 -0.07642482 -0.10792467 -0.024067942 -0.022830853 -0.14221443 -0.16305937 -0.17026085 -0.16758421 0.045847125 -0.14666115 0.13399054 -0.11255213 0.2973586 0.103376806 -0.010138875 0.071737655 -0.029321827 0.009096481 0.13485824 0.057990868 0.1514389 -0.0024616737 0.18170999 -0.06152208 -0.054508477 0.11052978 0.014971402 -0.16205318 0.013587868 0.19738375 -0.02874056 -0.07963182 -0.11446417 -0.050439104 -0.030965956 0.08877405 0.04805623 -0.06038344 0.05786513 -0.032837648 0.064624436 0.1202846 -0.17731507 0.12160129 -0.13619834 0.027119275 -0.13159253 -0.1166144 0.09235919 0.10198745 -0.23656195 0.16709776 0.21216182 -0.015784012 0.06466633 -0.1886985 -0.01587591 0.18745224 -0.14956853 0.009572291 0.010266813 -0.08589234 0.11706187 0.24566469 0.13890241 -0.12472439 -0.033592228 -0.036702137 0.07264352 -0.05125026 -0.02203377 -0.009261073 0.13546112 0.05229768 -0.04596841 0.010714067 -0.019860618 -0.1029648 0.038884453 0.004759799 0.060014136 -0.083907016 0.00086584606
19 0.043980177 0.0742815 -0.05601816 0.11929816 -0.0083115725 0.035061132 -0.027070895 0.013836428 -0.16270138 0.10217736 -0.11102841 0.08915483 0.07147519 -0.057389658 0.01895128 -0.0047385823 0.095597416 -0.061508875 0.08747508 -0.08638947 0.11556022 -0.15211433 0.04880416 0.049735192 -0.24698663 -0.13082448 0.08553135 0.13250981 0.16921034 0.06380506 -0.012732871 0.10476906 0.11344037 -0.16285595 -0.08612941 -0.062210377 0.12111264 -0.09231779 0.019392652 -0.180227 -0.20367277 -0.048039876 0.020189093 0.13820739 -0.13311763 -0.109380804 -0.12756366 -0.032303587 -0.040656243 -0.1447151 -0.16295883 -0.15759167 -0.13336372 0.05543963 -0.14636402 0.12099016 -0.14632966 0.31136975 0.13151304 -0.007714124 0.08148601 -0.060929183 -0.001042519 0.14061819 0.08745345 0.13731721 0.010009249 0.14931718 -0.059358608 -0.0628887 0.085678875 -0.0042671133 -0.165937 0.0014392072 0.19432779 -0.018523792 -0.071979195 -0.12522528 -0.062815875 -0.013181701 0.09809081 0.05724144 -0.02895122 0.060247306 -0.019442922 0.046286833 0.14323607 -0.18117796 0.10994696 -0.124431394 0.017449684 -0.14306882 -0.10479683 0.10034329 0.097065866 -0.24004312 0.15963572 0.21747091 -0.052982356 0.07139568 -0.17683633 -0.0038076052 0.17530346 -0.12168244 0.0015569057 0.019840544 -0.09372002 0.12161675 0.24381454 0.11479347 -0.10995794 -0.024263626 -0.029758912 0.07068485 -0.067285866 0.0023399212 -0.00082098146 0.13247834 0.031211851 -0.033881422 -0.018446526 -0.017283643 -0.108997636 0.061073285 -0.009868653 0.03737017 -0.071497574 -0.030298838
12 0.04819324 0.004131912 -0.0350608 0.13586804 0.004264086 0.037199106 -0.043907713 -3.0174655e-05 -0.14922154 0.06959672 -0.11088534 0.03922959 0.044085264 -0.10166604 -0.052684937 -0.11713941 0.08450936 0.021383574 0.12040257 -0.02953847 0.1083486 -0.14522561 0.007044558 0.046271607 -0.26189077 -0.1538023 0.13146366 0.075728804 0.10064651 0.109711915 0.020360189 0.109729595 0.12454707 -0.11845952 -0.11870202 -0.14714022 0.122775815 0.015051606 0.057705518 -0.16871206 -0.16108859 -0.038227066 0.065459244 0.03753824 -0.13194646 -0.019785626 -0.06319586 -0.0017038187 0.004655534 -0.13438396 -0.15031508 -0.17626339 -0.19941513 0.0216922 -0.13974443 0.15680578 -0.047244024 0.2608771 0.05819396 -0.01839319 0.05552695 0.03273971 0.012278386 0.11743535 -0.0007714776 0.17458893 -0.037220735 0.21261944 -0.07209832 -0.05143285 0.1448306 0.047291815 -0.14514218 0.018355893 0.19652028 -0.034755483 -0.099579565 -0.08646525 -0.023583764 -0.051287334 0.06835131 0.028337188 -0.100353085 0.05329864 -0.052961696 0.082597114 0.06542796 -0.14584543 0.12888238 -0.14291188 0.044605866 -0.10457933 -0.12688011 0.06373199 0.09331879 -0.21276622 0.17953917 0.20581554 0.046454597 0.04956006 -0.19074471 -0.03506637 0.19158661 -0.17203908 0.036907885 -0.010165824 -0.073102385 0.11070206 0.25287816 0.16685225 -0.15284206 -0.05613349 -0.0432321 0.06875905 -0.026290301 -0.07386333 -0.019526472 0.13079336 0.081967935 -0.06357305 0.051482003 -0.014615354 -0.082793295 0.009002387 0.031774327 0.109674014 -0.09487034 0.045854293
